Language model created by QuickLM on Wed Jun 14 19:08:54 EDT 2017
Copyright (c) 1996-2010 Carnegie Mellon University and Alexander I. Rudnicky

The model is in standard ARPA format, designed by Doug Paul while he was at MITRE.

The code that was used to produce this language model is available in Open Source.
Please visit http://www.speech.cs.cmu.edu/tools/ for more information

The (fixed) discount mass is 0.5. The backoffs are computed using the ratio method.
This model based on a corpus of 139 sentences and 140 words

\data\
ngram 1=140
ngram 2=276
ngram 3=138

\1-grams:
-0.7782 </s> -0.3010
-0.7782 <s> -0.2218
-2.9212 A -0.2218
-2.9212 AM -0.2218
-2.9212 ARE -0.2218
-2.9212 BACKYARD -0.2218
-2.9212 BASEBALL -0.2218
-2.9212 BASKETBALL -0.2218
-2.9212 BIRDS -0.2218
-2.9212 BOOM -0.2218
-2.9212 BORING -0.2218
-2.9212 CAGED -0.2218
-2.9212 CARDINALS -0.2218
-2.9212 CAVALIERS -0.2218
-2.9212 CLEVELAND -0.2218
-2.9212 COOL -0.2218
-2.9212 COROLLA -0.2218
-2.9212 COYOTES -0.2218
-2.9212 CREATE -0.2218
-2.9212 CUBS -0.2218
-2.9212 CURLING -0.2218
-2.9212 DAMMIT -0.2218
-2.9212 DAMNIT -0.2218
-2.9212 DIAMONDBACKS -0.2218
-2.9212 DID -0.2218
-2.9212 DO -0.2218
-2.9212 DODGERS -0.2218
-2.9212 DOES -0.2218
-2.9212 DON'T -0.2218
-2.9212 EARTH -0.2218
-2.9212 EIGHT -0.2218
-2.9212 ELEVEN -0.2218
-2.9212 ESPN -0.2218
-2.9212 FACE -0.2218
-2.9212 FIFTEEN -0.2218
-2.9212 FIRE -0.2218
-2.9212 FIVE -0.2218
-2.9212 FOOTBALL -0.2218
-2.9212 FOUR -0.2218
-2.9212 FOURTY -0.2218
-2.9212 GAME -0.2218
-2.9212 GIVE -0.2218
-2.9212 GOAL -0.2218
-2.9212 GOALIE -0.2218
-2.9212 GOLDEN -0.2218
-2.9212 GOOAL -0.2218
-2.9212 GOOD -0.2218
-2.9212 GOOOOAL -0.2218
-2.9212 HE -0.2218
-2.9212 HES -0.2218
-2.9212 HOCKEY -0.2218
-2.9212 HOMERUN -0.2218
-2.9212 HOW -0.2218
-2.6201 I -0.2218
-2.9212 IN -0.2218
-2.9212 IS -0.2218
-2.9212 IT -0.2218
-2.9212 JUST -0.2218
-2.9212 KNOW -0.2218
-2.9212 LIKE -0.2218
-2.9212 LOOK -0.2218
-2.9212 MANY -0.2218
-2.9212 ME -0.2218
-2.9212 MEETING -0.2218
-2.9212 MLB -0.2218
-2.9212 MLS -0.2218
-2.9212 MOVIE -0.2218
-2.9212 MUCH -0.2218
-2.9212 MY -0.2218
-2.9212 NBA -0.2218
-2.9212 NEED -0.2218
-2.9212 NET -0.2218
-2.9212 NFL -0.2218
-2.9212 NHL -0.2218
-2.9212 NINE -0.2218
-2.9212 NO -0.2218
-2.9212 NOON -0.2218
-2.9212 OCLOCK -0.2218
-2.9212 OF -0.2218
-2.9212 ON -0.2218
-2.9212 ONE -0.2218
-2.9212 OUT -0.2218
-2.9212 PENGUINS -0.2218
-2.9212 PIGS -0.2218
-2.9212 PLAY -0.2218
-2.9212 PLEASE -0.2218
-2.9212 PM -0.2218
-2.9212 POINT -0.2218
-2.9212 POINTER -0.2218
-2.9212 POINTS -0.2218
-2.9212 POKE -0.2218
-2.9212 POLAND -0.2218
-2.9212 REALLY -0.2218
-2.9212 ROCKIES -0.2218
-2.9212 ROOT -0.2218
-2.9212 ROUND -0.2218
-2.9212 SCHEDULE -0.2218
-2.9212 SCHEDULED -0.2218
-2.9212 SCORE -0.2218
-2.9212 SCORES -0.2218
-2.9212 SEE -0.2218
-2.9212 SEVEN -0.2218
-2.9212 SHAKALAKA -0.2218
-2.9212 SHED -0.2218
-2.9212 SHOES -0.2218
-2.9212 SHUT -0.2218
-2.9212 SHUTOUT -0.2218
-2.9212 SING -0.2218
-2.9212 SIX -0.2218
-2.9212 SOCCER -0.2218
-2.9212 SOFTBALL -0.2218
-2.9212 SPORTS -0.2218
-2.9212 SPURS -0.2218
-2.9212 SQUARE -0.2218
-2.9212 STATE -0.2218
-2.9212 SUNS -0.2218
-2.9212 TELL -0.2218
-2.9212 TEN -0.2218
-2.9212 THAT -0.2218
-2.9212 THE -0.2218
-2.9212 THERE -0.2218
-2.9212 THIRTY -0.2218
-2.9212 THREE -0.2218
-2.9212 TIE -0.2218
-2.9212 TO -0.2218
-2.9212 TOYOTA -0.2218
-2.9212 TV -0.2218
-2.9212 TWO -0.2218
-2.9212 VOLLEYBALL -0.2218
-2.9212 WANT -0.2218
-2.9212 WANTED -0.2218
-2.9212 WARRIORS -0.2218
-2.9212 WAS -0.2218
-2.9212 WHAT -0.2218
-2.9212 WHERE -0.2218
-2.9212 WHY -0.2218
-2.9212 YO -0.2218
-2.9212 YOU -0.2218
-2.9212 YOUR -0.2218
-2.9212 ZEBRAS -0.2218

\2-grams:
-2.4440 <s> A 0.0000
-2.4440 <s> AM 0.0000
-2.4440 <s> ARE 0.0000
-2.4440 <s> BACKYARD 0.0000
-2.4440 <s> BASEBALL 0.0000
-2.4440 <s> BASKETBALL 0.0000
-2.4440 <s> BIRDS 0.0000
-2.4440 <s> BOOM 0.0000
-2.4440 <s> BORING 0.0000
-2.4440 <s> CAGED 0.0000
-2.4440 <s> CARDINALS 0.0000
-2.4440 <s> CAVALIERS 0.0000
-2.4440 <s> CLEVELAND 0.0000
-2.4440 <s> COOL 0.0000
-2.4440 <s> COROLLA 0.0000
-2.4440 <s> COYOTES 0.0000
-2.4440 <s> CREATE 0.0000
-2.4440 <s> CUBS 0.0000
-2.4440 <s> CURLING 0.0000
-2.4440 <s> DAMMIT 0.0000
-2.4440 <s> DAMNIT 0.0000
-2.4440 <s> DIAMONDBACKS 0.0000
-2.4440 <s> DID 0.0000
-2.4440 <s> DO 0.0000
-2.4440 <s> DODGERS 0.0000
-2.4440 <s> DOES 0.0000
-2.4440 <s> DON'T 0.0000
-2.4440 <s> EARTH 0.0000
-2.4440 <s> EIGHT 0.0000
-2.4440 <s> ELEVEN 0.0000
-2.4440 <s> ESPN 0.0000
-2.4440 <s> FACE 0.0000
-2.4440 <s> FIFTEEN 0.0000
-2.4440 <s> FIRE 0.0000
-2.4440 <s> FIVE 0.0000
-2.4440 <s> FOOTBALL 0.0000
-2.4440 <s> FOUR 0.0000
-2.4440 <s> FOURTY 0.0000
-2.4440 <s> GAME 0.0000
-2.4440 <s> GIVE 0.0000
-2.4440 <s> GOAL 0.0000
-2.4440 <s> GOALIE 0.0000
-2.4440 <s> GOLDEN 0.0000
-2.4440 <s> GOOAL 0.0000
-2.4440 <s> GOOD 0.0000
-2.4440 <s> GOOOOAL 0.0000
-2.4440 <s> HE 0.0000
-2.4440 <s> HES 0.0000
-2.4440 <s> HOCKEY 0.0000
-2.4440 <s> HOMERUN 0.0000
-2.4440 <s> HOW 0.0000
-2.1430 <s> I 0.0000
-2.4440 <s> IN 0.0000
-2.4440 <s> IS 0.0000
-2.4440 <s> IT 0.0000
-2.4440 <s> JUST 0.0000
-2.4440 <s> KNOW 0.0000
-2.4440 <s> LIKE 0.0000
-2.4440 <s> LOOK 0.0000
-2.4440 <s> MANY 0.0000
-2.4440 <s> ME 0.0000
-2.4440 <s> MEETING 0.0000
-2.4440 <s> MLB 0.0000
-2.4440 <s> MLS 0.0000
-2.4440 <s> MOVIE 0.0000
-2.4440 <s> MUCH 0.0000
-2.4440 <s> MY 0.0000
-2.4440 <s> NBA 0.0000
-2.4440 <s> NEED 0.0000
-2.4440 <s> NET 0.0000
-2.4440 <s> NFL 0.0000
-2.4440 <s> NHL 0.0000
-2.4440 <s> NINE 0.0000
-2.4440 <s> NO 0.0000
-2.4440 <s> NOON 0.0000
-2.4440 <s> OCLOCK 0.0000
-2.4440 <s> OF 0.0000
-2.4440 <s> ON 0.0000
-2.4440 <s> ONE 0.0000
-2.4440 <s> OUT 0.0000
-2.4440 <s> PENGUINS 0.0000
-2.4440 <s> PIGS 0.0000
-2.4440 <s> PLAY 0.0000
-2.4440 <s> PLEASE 0.0000
-2.4440 <s> PM 0.0000
-2.4440 <s> POINT 0.0000
-2.4440 <s> POINTER 0.0000
-2.4440 <s> POINTS 0.0000
-2.4440 <s> POKE 0.0000
-2.4440 <s> POLAND 0.0000
-2.4440 <s> REALLY 0.0000
-2.4440 <s> ROCKIES 0.0000
-2.4440 <s> ROOT 0.0000
-2.4440 <s> ROUND 0.0000
-2.4440 <s> SCHEDULE 0.0000
-2.4440 <s> SCHEDULED 0.0000
-2.4440 <s> SCORE 0.0000
-2.4440 <s> SCORES 0.0000
-2.4440 <s> SEE 0.0000
-2.4440 <s> SEVEN 0.0000
-2.4440 <s> SHAKALAKA 0.0000
-2.4440 <s> SHED 0.0000
-2.4440 <s> SHOES 0.0000
-2.4440 <s> SHUT 0.0000
-2.4440 <s> SHUTOUT 0.0000
-2.4440 <s> SING 0.0000
-2.4440 <s> SIX 0.0000
-2.4440 <s> SOCCER 0.0000
-2.4440 <s> SOFTBALL 0.0000
-2.4440 <s> SPORTS 0.0000
-2.4440 <s> SPURS 0.0000
-2.4440 <s> SQUARE 0.0000
-2.4440 <s> STATE 0.0000
-2.4440 <s> SUNS 0.0000
-2.4440 <s> TELL 0.0000
-2.4440 <s> TEN 0.0000
-2.4440 <s> THAT 0.0000
-2.4440 <s> THE 0.0000
-2.4440 <s> THERE 0.0000
-2.4440 <s> THIRTY 0.0000
-2.4440 <s> THREE 0.0000
-2.4440 <s> TIE 0.0000
-2.4440 <s> TO 0.0000
-2.4440 <s> TOYOTA 0.0000
-2.4440 <s> TV 0.0000
-2.4440 <s> TWO 0.0000
-2.4440 <s> VOLLEYBALL 0.0000
-2.4440 <s> WANT 0.0000
-2.4440 <s> WANTED 0.0000
-2.4440 <s> WARRIORS 0.0000
-2.4440 <s> WAS 0.0000
-2.4440 <s> WHAT 0.0000
-2.4440 <s> WHERE 0.0000
-2.4440 <s> WHY 0.0000
-2.4440 <s> YO 0.0000
-2.4440 <s> YOU 0.0000
-2.4440 <s> YOUR 0.0000
-2.4440 <s> ZEBRAS 0.0000
-0.3010 A </s> -0.3010
-0.3010 AM </s> -0.3010
-0.3010 ARE </s> -0.3010
-0.3010 BACKYARD </s> -0.3010
-0.3010 BASEBALL </s> -0.3010
-0.3010 BASKETBALL </s> -0.3010
-0.3010 BIRDS </s> -0.3010
-0.3010 BOOM </s> -0.3010
-0.3010 BORING </s> -0.3010
-0.3010 CAGED </s> -0.3010
-0.3010 CARDINALS </s> -0.3010
-0.3010 CAVALIERS </s> -0.3010
-0.3010 CLEVELAND </s> -0.3010
-0.3010 COOL </s> -0.3010
-0.3010 COROLLA </s> -0.3010
-0.3010 COYOTES </s> -0.3010
-0.3010 CREATE </s> -0.3010
-0.3010 CUBS </s> -0.3010
-0.3010 CURLING </s> -0.3010
-0.3010 DAMMIT </s> -0.3010
-0.3010 DAMNIT </s> -0.3010
-0.3010 DIAMONDBACKS </s> -0.3010
-0.3010 DID </s> -0.3010
-0.3010 DO </s> -0.3010
-0.3010 DODGERS </s> -0.3010
-0.3010 DOES </s> -0.3010
-0.3010 DON'T </s> -0.3010
-0.3010 EARTH </s> -0.3010
-0.3010 EIGHT </s> -0.3010
-0.3010 ELEVEN </s> -0.3010
-0.3010 ESPN </s> -0.3010
-0.3010 FACE </s> -0.3010
-0.3010 FIFTEEN </s> -0.3010
-0.3010 FIRE </s> -0.3010
-0.3010 FIVE </s> -0.3010
-0.3010 FOOTBALL </s> -0.3010
-0.3010 FOUR </s> -0.3010
-0.3010 FOURTY </s> -0.3010
-0.3010 GAME </s> -0.3010
-0.3010 GIVE </s> -0.3010
-0.3010 GOAL </s> -0.3010
-0.3010 GOALIE </s> -0.3010
-0.3010 GOLDEN </s> -0.3010
-0.3010 GOOAL </s> -0.3010
-0.3010 GOOD </s> -0.3010
-0.3010 GOOOOAL </s> -0.3010
-0.3010 HE </s> -0.3010
-0.3010 HES </s> -0.3010
-0.3010 HOCKEY </s> -0.3010
-0.3010 HOMERUN </s> -0.3010
-0.3010 HOW </s> -0.3010
-0.3010 I </s> -0.3010
-0.3010 IN </s> -0.3010
-0.3010 IS </s> -0.3010
-0.3010 IT </s> -0.3010
-0.3010 JUST </s> -0.3010
-0.3010 KNOW </s> -0.3010
-0.3010 LIKE </s> -0.3010
-0.3010 LOOK </s> -0.3010
-0.3010 MANY </s> -0.3010
-0.3010 ME </s> -0.3010
-0.3010 MEETING </s> -0.3010
-0.3010 MLB </s> -0.3010
-0.3010 MLS </s> -0.3010
-0.3010 MOVIE </s> -0.3010
-0.3010 MUCH </s> -0.3010
-0.3010 MY </s> -0.3010
-0.3010 NBA </s> -0.3010
-0.3010 NEED </s> -0.3010
-0.3010 NET </s> -0.3010
-0.3010 NFL </s> -0.3010
-0.3010 NHL </s> -0.3010
-0.3010 NINE </s> -0.3010
-0.3010 NO </s> -0.3010
-0.3010 NOON </s> -0.3010
-0.3010 OCLOCK </s> -0.3010
-0.3010 OF </s> -0.3010
-0.3010 ON </s> -0.3010
-0.3010 ONE </s> -0.3010
-0.3010 OUT </s> -0.3010
-0.3010 PENGUINS </s> -0.3010
-0.3010 PIGS </s> -0.3010
-0.3010 PLAY </s> -0.3010
-0.3010 PLEASE </s> -0.3010
-0.3010 PM </s> -0.3010
-0.3010 POINT </s> -0.3010
-0.3010 POINTER </s> -0.3010
-0.3010 POINTS </s> -0.3010
-0.3010 POKE </s> -0.3010
-0.3010 POLAND </s> -0.3010
-0.3010 REALLY </s> -0.3010
-0.3010 ROCKIES </s> -0.3010
-0.3010 ROOT </s> -0.3010
-0.3010 ROUND </s> -0.3010
-0.3010 SCHEDULE </s> -0.3010
-0.3010 SCHEDULED </s> -0.3010
-0.3010 SCORE </s> -0.3010
-0.3010 SCORES </s> -0.3010
-0.3010 SEE </s> -0.3010
-0.3010 SEVEN </s> -0.3010
-0.3010 SHAKALAKA </s> -0.3010
-0.3010 SHED </s> -0.3010
-0.3010 SHOES </s> -0.3010
-0.3010 SHUT </s> -0.3010
-0.3010 SHUTOUT </s> -0.3010
-0.3010 SING </s> -0.3010
-0.3010 SIX </s> -0.3010
-0.3010 SOCCER </s> -0.3010
-0.3010 SOFTBALL </s> -0.3010
-0.3010 SPORTS </s> -0.3010
-0.3010 SPURS </s> -0.3010
-0.3010 SQUARE </s> -0.3010
-0.3010 STATE </s> -0.3010
-0.3010 SUNS </s> -0.3010
-0.3010 TELL </s> -0.3010
-0.3010 TEN </s> -0.3010
-0.3010 THAT </s> -0.3010
-0.3010 THE </s> -0.3010
-0.3010 THERE </s> -0.3010
-0.3010 THIRTY </s> -0.3010
-0.3010 THREE </s> -0.3010
-0.3010 TIE </s> -0.3010
-0.3010 TO </s> -0.3010
-0.3010 TOYOTA </s> -0.3010
-0.3010 TV </s> -0.3010
-0.3010 TWO </s> -0.3010
-0.3010 VOLLEYBALL </s> -0.3010
-0.3010 WANT </s> -0.3010
-0.3010 WANTED </s> -0.3010
-0.3010 WARRIORS </s> -0.3010
-0.3010 WAS </s> -0.3010
-0.3010 WHAT </s> -0.3010
-0.3010 WHERE </s> -0.3010
-0.3010 WHY </s> -0.3010
-0.3010 YO </s> -0.3010
-0.3010 YOU </s> -0.3010
-0.3010 YOUR </s> -0.3010
-0.3010 ZEBRAS </s> -0.3010

\3-grams:
-0.3010 <s> A </s>
-0.3010 <s> AM </s>
-0.3010 <s> ARE </s>
-0.3010 <s> BACKYARD </s>
-0.3010 <s> BASEBALL </s>
-0.3010 <s> BASKETBALL </s>
-0.3010 <s> BIRDS </s>
-0.3010 <s> BOOM </s>
-0.3010 <s> BORING </s>
-0.3010 <s> CAGED </s>
-0.3010 <s> CARDINALS </s>
-0.3010 <s> CAVALIERS </s>
-0.3010 <s> CLEVELAND </s>
-0.3010 <s> COOL </s>
-0.3010 <s> COROLLA </s>
-0.3010 <s> COYOTES </s>
-0.3010 <s> CREATE </s>
-0.3010 <s> CUBS </s>
-0.3010 <s> CURLING </s>
-0.3010 <s> DAMMIT </s>
-0.3010 <s> DAMNIT </s>
-0.3010 <s> DIAMONDBACKS </s>
-0.3010 <s> DID </s>
-0.3010 <s> DO </s>
-0.3010 <s> DODGERS </s>
-0.3010 <s> DOES </s>
-0.3010 <s> DON'T </s>
-0.3010 <s> EARTH </s>
-0.3010 <s> EIGHT </s>
-0.3010 <s> ELEVEN </s>
-0.3010 <s> ESPN </s>
-0.3010 <s> FACE </s>
-0.3010 <s> FIFTEEN </s>
-0.3010 <s> FIRE </s>
-0.3010 <s> FIVE </s>
-0.3010 <s> FOOTBALL </s>
-0.3010 <s> FOUR </s>
-0.3010 <s> FOURTY </s>
-0.3010 <s> GAME </s>
-0.3010 <s> GIVE </s>
-0.3010 <s> GOAL </s>
-0.3010 <s> GOALIE </s>
-0.3010 <s> GOLDEN </s>
-0.3010 <s> GOOAL </s>
-0.3010 <s> GOOD </s>
-0.3010 <s> GOOOOAL </s>
-0.3010 <s> HE </s>
-0.3010 <s> HES </s>
-0.3010 <s> HOCKEY </s>
-0.3010 <s> HOMERUN </s>
-0.3010 <s> HOW </s>
-0.3010 <s> I </s>
-0.3010 <s> IN </s>
-0.3010 <s> IS </s>
-0.3010 <s> IT </s>
-0.3010 <s> JUST </s>
-0.3010 <s> KNOW </s>
-0.3010 <s> LIKE </s>
-0.3010 <s> LOOK </s>
-0.3010 <s> MANY </s>
-0.3010 <s> ME </s>
-0.3010 <s> MEETING </s>
-0.3010 <s> MLB </s>
-0.3010 <s> MLS </s>
-0.3010 <s> MOVIE </s>
-0.3010 <s> MUCH </s>
-0.3010 <s> MY </s>
-0.3010 <s> NBA </s>
-0.3010 <s> NEED </s>
-0.3010 <s> NET </s>
-0.3010 <s> NFL </s>
-0.3010 <s> NHL </s>
-0.3010 <s> NINE </s>
-0.3010 <s> NO </s>
-0.3010 <s> NOON </s>
-0.3010 <s> OCLOCK </s>
-0.3010 <s> OF </s>
-0.3010 <s> ON </s>
-0.3010 <s> ONE </s>
-0.3010 <s> OUT </s>
-0.3010 <s> PENGUINS </s>
-0.3010 <s> PIGS </s>
-0.3010 <s> PLAY </s>
-0.3010 <s> PLEASE </s>
-0.3010 <s> PM </s>
-0.3010 <s> POINT </s>
-0.3010 <s> POINTER </s>
-0.3010 <s> POINTS </s>
-0.3010 <s> POKE </s>
-0.3010 <s> POLAND </s>
-0.3010 <s> REALLY </s>
-0.3010 <s> ROCKIES </s>
-0.3010 <s> ROOT </s>
-0.3010 <s> ROUND </s>
-0.3010 <s> SCHEDULE </s>
-0.3010 <s> SCHEDULED </s>
-0.3010 <s> SCORE </s>
-0.3010 <s> SCORES </s>
-0.3010 <s> SEE </s>
-0.3010 <s> SEVEN </s>
-0.3010 <s> SHAKALAKA </s>
-0.3010 <s> SHED </s>
-0.3010 <s> SHOES </s>
-0.3010 <s> SHUT </s>
-0.3010 <s> SHUTOUT </s>
-0.3010 <s> SING </s>
-0.3010 <s> SIX </s>
-0.3010 <s> SOCCER </s>
-0.3010 <s> SOFTBALL </s>
-0.3010 <s> SPORTS </s>
-0.3010 <s> SPURS </s>
-0.3010 <s> SQUARE </s>
-0.3010 <s> STATE </s>
-0.3010 <s> SUNS </s>
-0.3010 <s> TELL </s>
-0.3010 <s> TEN </s>
-0.3010 <s> THAT </s>
-0.3010 <s> THE </s>
-0.3010 <s> THERE </s>
-0.3010 <s> THIRTY </s>
-0.3010 <s> THREE </s>
-0.3010 <s> TIE </s>
-0.3010 <s> TO </s>
-0.3010 <s> TOYOTA </s>
-0.3010 <s> TV </s>
-0.3010 <s> TWO </s>
-0.3010 <s> VOLLEYBALL </s>
-0.3010 <s> WANT </s>
-0.3010 <s> WANTED </s>
-0.3010 <s> WARRIORS </s>
-0.3010 <s> WAS </s>
-0.3010 <s> WHAT </s>
-0.3010 <s> WHERE </s>
-0.3010 <s> WHY </s>
-0.3010 <s> YO </s>
-0.3010 <s> YOU </s>
-0.3010 <s> YOUR </s>
-0.3010 <s> ZEBRAS </s>

\end\
